Language model created by QuickLM on Thu Jun 16 07:38:58 EDT 2016
Copyright (c) 1996-2010 Carnegie Mellon University and Alexander I. Rudnicky

The model is in standard ARPA format, designed by Doug Paul while he was at MITRE.

The code that was used to produce this language model is available in Open Source.
Please visit http://www.speech.cs.cmu.edu/tools/ for more information

The (fixed) discount mass is 0.5. The backoffs are computed using the ratio method.
This model based on a corpus of 14 sentences and 35 words

\data\
ngram 1=35
ngram 2=51
ngram 3=48

\1-grams:
-1.1505 </s> -0.3010
-1.1505 <s> -0.2692
-2.2967 A -0.2944
-2.2967 DEPART -0.2692
-2.2967 DOES -0.2808
-2.2967 ENGLAND -0.2692
-2.2967 FRANCE -0.2692
-2.2967 GERMANY -0.2692
-1.9956 HOW -0.2966
-1.9956 IS -0.2808
-2.2967 ITALY -0.2692
-2.2967 MAGIC -0.2988
-1.5977 ME -0.2808
-2.2967 MIRROR -0.2692
-2.2967 MUSIC -0.2692
-1.9956 NEXT -0.2922
-1.5977 OF -0.2899
-2.2967 PLAY -0.2988
-2.2967 PLAYLIST -0.2692
-1.5977 SHOW -0.2899
-2.2967 SHUFFLE -0.2988
-2.2967 SKIP -0.2988
-1.5977 SOCCER -0.2899
-1.8195 SONG -0.2692
-2.2967 SPAIN -0.2692
-1.5977 SPOTIFY -0.2877
-1.5977 STANDINGS -0.2899
-2.2967 STOP -0.2808
-1.3424 THE -0.2785
-2.2967 THIS -0.2944
-2.2967 TODAY -0.2692
-2.2967 TOMORROW -0.2692
-2.2967 TRAIN -0.2988
-1.9956 WEATHER -0.2966
-2.2967 WHEN -0.2988

\2-grams:
-1.1461 <s> HOW 0.0000
-1.4472 <s> MAGIC 0.0000
-0.7482 <s> SHOW 0.0000
-0.7482 <s> SPOTIFY 0.0000
-1.4472 <s> WHEN 0.0000
-0.3010 A SONG 0.0000
-0.3010 DEPART </s> -0.3010
-0.3010 DOES THE -0.2762
-0.3010 ENGLAND </s> -0.3010
-0.3010 FRANCE </s> -0.3010
-0.3010 GERMANY </s> -0.3010
-0.3010 HOW IS 0.0000
-0.3010 IS THE -0.2499
-0.3010 ITALY </s> -0.3010
-0.3010 MAGIC MIRROR 0.0000
-0.3010 ME THE -0.1597
-0.3010 MIRROR </s> -0.3010
-0.3010 MUSIC </s> -0.3010
-0.6021 NEXT SONG 0.0000
-0.6021 NEXT TRAIN 0.0000
-1.0000 OF ENGLAND 0.0000
-1.0000 OF FRANCE 0.0000
-1.0000 OF GERMANY 0.0000
-1.0000 OF ITALY 0.0000
-1.0000 OF SPAIN 0.0000
-0.3010 PLAY A 0.0000
-0.3010 PLAYLIST </s> -0.3010
-0.3010 SHOW ME 0.0000
-0.3010 SHUFFLE PLAYLIST 0.0000
-0.3010 SKIP THIS 0.0000
-0.3010 SOCCER STANDINGS 0.0000
-0.3010 SONG </s> -0.3010
-0.3010 SPAIN </s> -0.3010
-1.0000 SPOTIFY NEXT -0.1761
-1.0000 SPOTIFY PLAY 0.0000
-1.0000 SPOTIFY SHUFFLE 0.0000
-1.0000 SPOTIFY SKIP 0.0000
-1.0000 SPOTIFY STOP 0.0000
-0.3010 STANDINGS OF 0.0000
-0.3010 STOP THE -0.2762
-1.2553 THE MUSIC 0.0000
-1.2553 THE NEXT -0.1761
-0.5563 THE SOCCER 0.0000
-0.9542 THE WEATHER 0.0000
-0.3010 THIS SONG 0.0000
-0.3010 TODAY </s> -0.3010
-0.3010 TOMORROW </s> -0.3010
-0.3010 TRAIN DEPART 0.0000
-0.6021 WEATHER TODAY 0.0000
-0.6021 WEATHER TOMORROW 0.0000
-0.3010 WHEN DOES 0.0000

\3-grams:
-0.3010 <s> HOW IS
-0.3010 <s> MAGIC MIRROR
-0.3010 <s> SHOW ME
-1.0000 <s> SPOTIFY NEXT
-1.0000 <s> SPOTIFY PLAY
-1.0000 <s> SPOTIFY SHUFFLE
-1.0000 <s> SPOTIFY SKIP
-1.0000 <s> SPOTIFY STOP
-0.3010 <s> WHEN DOES
-0.3010 A SONG </s>
-0.3010 DOES THE NEXT
-0.3010 HOW IS THE
-0.3010 IS THE WEATHER
-0.3010 MAGIC MIRROR </s>
-0.3010 ME THE SOCCER
-0.3010 NEXT SONG </s>
-0.3010 NEXT TRAIN DEPART
-0.3010 OF ENGLAND </s>
-0.3010 OF FRANCE </s>
-0.3010 OF GERMANY </s>
-0.3010 OF ITALY </s>
-0.3010 OF SPAIN </s>
-0.3010 PLAY A SONG
-0.3010 SHOW ME THE
-0.3010 SHUFFLE PLAYLIST </s>
-0.3010 SKIP THIS SONG
-0.3010 SOCCER STANDINGS OF
-0.3010 SPOTIFY NEXT SONG
-0.3010 SPOTIFY PLAY A
-0.3010 SPOTIFY SHUFFLE PLAYLIST
-0.3010 SPOTIFY SKIP THIS
-0.3010 SPOTIFY STOP THE
-1.0000 STANDINGS OF ENGLAND
-1.0000 STANDINGS OF FRANCE
-1.0000 STANDINGS OF GERMANY
-1.0000 STANDINGS OF ITALY
-1.0000 STANDINGS OF SPAIN
-0.3010 STOP THE MUSIC
-0.3010 THE MUSIC </s>
-0.3010 THE NEXT TRAIN
-0.3010 THE SOCCER STANDINGS
-0.6021 THE WEATHER TODAY
-0.6021 THE WEATHER TOMORROW
-0.3010 THIS SONG </s>
-0.3010 TRAIN DEPART </s>
-0.3010 WEATHER TODAY </s>
-0.3010 WEATHER TOMORROW </s>
-0.3010 WHEN DOES THE

\end\
